digraph Tree {
node [shape=box] ;
0 [label="Sex <= 0.5\ngini = 0.473\nsamples = 891\nvalue = [549, 342]"] ;
1 [label="Pclass <= 1.5\ngini = 0.3828\nsamples = 314\nvalue = [81, 233]"] ;
0 -> 1 [labeldistance=2.5, labelangle=45, headlabel="True"] ;
2 [label="Age_Med_Imp <= 2.5\ngini = 0.1003\nsamples = 170\nvalue = [9, 161]"] ;
1 -> 2 ;
3 [label="Deck <= 5.0\ngini = 0.5\nsamples = 2\nvalue = [1, 1]"] ;
2 -> 3 ;
4 [label="gini = 0.0\nsamples = 1\nvalue = [1, 0]"] ;
3 -> 4 ;
5 [label="gini = 0.0\nsamples = 1\nvalue = [0, 1]"] ;
3 -> 5 ;
6 [label="Fare <= 28.8563\ngini = 0.0907\nsamples = 168\nvalue = [8, 160]"] ;
2 -> 6 ;
7 [label="Fare <= 28.2313\ngini = 0.1823\nsamples = 69\nvalue = [7, 62]"] ;
6 -> 7 ;
8 [label="Age_Med_Imp <= 56.0\ngini = 0.1609\nsamples = 68\nvalue = [6, 62]"] ;
7 -> 8 ;
9 [label="Age_Med_Imp <= 23.5\ngini = 0.14\nsamples = 66\nvalue = [5, 61]"] ;
8 -> 9 ;
10 [label="gini = 0.0\nsamples = 15\nvalue = [0, 15]"] ;
9 -> 10 ;
11 [label="Age_Med_Imp <= 27.5\ngini = 0.1769\nsamples = 51\nvalue = [5, 46]"] ;
9 -> 11 ;
12 [label="Age_Med_Imp <= 25.5\ngini = 0.3967\nsamples = 11\nvalue = [3, 8]"] ;
11 -> 12 ;
13 [label="Title <= 4.0\ngini = 0.2449\nsamples = 7\nvalue = [1, 6]"] ;
12 -> 13 ;
14 [label="Deck <= 6.5\ngini = 0.5\nsamples = 2\nvalue = [1, 1]"] ;
13 -> 14 ;
15 [label="gini = 0.0\nsamples = 1\nvalue = [0, 1]"] ;
14 -> 15 ;
16 [label="gini = 0.0\nsamples = 1\nvalue = [1, 0]"] ;
14 -> 16 ;
17 [label="gini = 0.0\nsamples = 5\nvalue = [0, 5]"] ;
13 -> 17 ;
18 [label="Fare <= 17.4291\ngini = 0.5\nsamples = 4\nvalue = [2, 2]"] ;
12 -> 18 ;
19 [label="gini = 0.0\nsamples = 2\nvalue = [0, 2]"] ;
18 -> 19 ;
20 [label="gini = 0.0\nsamples = 2\nvalue = [2, 0]"] ;
18 -> 20 ;
21 [label="Age_Med_Imp <= 37.0\ngini = 0.095\nsamples = 40\nvalue = [2, 38]"] ;
11 -> 21 ;
22 [label="gini = 0.0\nsamples = 23\nvalue = [0, 23]"] ;
21 -> 22 ;
23 [label="Age_Med_Imp <= 39.0\ngini = 0.2076\nsamples = 17\nvalue = [2, 15]"] ;
21 -> 23 ;
24 [label="gini = 0.0\nsamples = 1\nvalue = [1, 0]"] ;
23 -> 24 ;
25 [label="Fare <= 25.9646\ngini = 0.1172\nsamples = 16\nvalue = [1, 15]"] ;
23 -> 25 ;
26 [label="gini = 0.0\nsamples = 11\nvalue = [0, 11]"] ;
25 -> 26 ;
27 [label="Fare <= 26.125\ngini = 0.32\nsamples = 5\nvalue = [1, 4]"] ;
25 -> 27 ;
28 [label="Age_Med_Imp <= 43.0\ngini = 0.4444\nsamples = 3\nvalue = [1, 2]"] ;
27 -> 28 ;
29 [label="gini = 0.0\nsamples = 1\nvalue = [0, 1]"] ;
28 -> 29 ;
30 [label="Age_Med_Imp <= 47.0\ngini = 0.5\nsamples = 2\nvalue = [1, 1]"] ;
28 -> 30 ;
31 [label="gini = 0.0\nsamples = 1\nvalue = [1, 0]"] ;
30 -> 31 ;
32 [label="gini = 0.0\nsamples = 1\nvalue = [0, 1]"] ;
30 -> 32 ;
33 [label="gini = 0.0\nsamples = 2\nvalue = [0, 2]"] ;
27 -> 33 ;
34 [label="Deck <= 3.0\ngini = 0.5\nsamples = 2\nvalue = [1, 1]"] ;
8 -> 34 ;
35 [label="gini = 0.0\nsamples = 1\nvalue = [0, 1]"] ;
34 -> 35 ;
36 [label="gini = 0.0\nsamples = 1\nvalue = [1, 0]"] ;
34 -> 36 ;
37 [label="gini = 0.0\nsamples = 1\nvalue = [1, 0]"] ;
7 -> 37 ;
38 [label="Family_Size <= 3.5\ngini = 0.02\nsamples = 99\nvalue = [1, 98]"] ;
6 -> 38 ;
39 [label="gini = 0.0\nsamples = 87\nvalue = [0, 87]"] ;
38 -> 39 ;
40 [label="Age_Med_Imp <= 24.5\ngini = 0.1528\nsamples = 12\nvalue = [1, 11]"] ;
38 -> 40 ;
41 [label="gini = 0.0\nsamples = 9\nvalue = [0, 9]"] ;
40 -> 41 ;
42 [label="Fare <= 135.775\ngini = 0.4444\nsamples = 3\nvalue = [1, 2]"] ;
40 -> 42 ;
43 [label="gini = 0.0\nsamples = 2\nvalue = [0, 2]"] ;
42 -> 43 ;
44 [label="gini = 0.0\nsamples = 1\nvalue = [1, 0]"] ;
42 -> 44 ;
45 [label="Family_Size <= 4.5\ngini = 0.5\nsamples = 144\nvalue = [72, 72]"] ;
1 -> 45 ;
46 [label="Age_Med_Imp <= 36.5\ngini = 0.4839\nsamples = 117\nvalue = [48, 69]"] ;
45 -> 46 ;
47 [label="Age_Med_Imp <= 7.0\ngini = 0.4721\nsamples = 110\nvalue = [42, 68]"] ;
46 -> 47 ;
48 [label="Fare <= 10.7979\ngini = 0.1653\nsamples = 11\nvalue = [1, 10]"] ;
47 -> 48 ;
49 [label="gini = 0.0\nsamples = 1\nvalue = [1, 0]"] ;
48 -> 49 ;
50 [label="gini = 0.0\nsamples = 10\nvalue = [0, 10]"] ;
48 -> 50 ;
51 [label="Fare <= 7.8875\ngini = 0.4853\nsamples = 99\nvalue = [41, 58]"] ;
47 -> 51 ;
52 [label="Fare <= 6.9875\ngini = 0.3926\nsamples = 41\nvalue = [11, 30]"] ;
51 -> 52 ;
53 [label="gini = 0.0\nsamples = 1\nvalue = [1, 0]"] ;
52 -> 53 ;
54 [label="Family_Size <= 2.5\ngini = 0.375\nsamples = 40\nvalue = [10, 30]"] ;
52 -> 54 ;
55 [label="Age_Med_Imp <= 24.0\ngini = 0.355\nsamples = 39\nvalue = [9, 30]"] ;
54 -> 55 ;
56 [label="Age_Med_Imp <= 14.5\ngini = 0.2975\nsamples = 33\nvalue = [6, 27]"] ;
55 -> 56 ;
57 [label="Fare <= 7.5417\ngini = 0.5\nsamples = 2\nvalue = [1, 1]"] ;
56 -> 57 ;
58 [label="gini = 0.0\nsamples = 1\nvalue = [0, 1]"] ;
57 -> 58 ;
59 [label="gini = 0.0\nsamples = 1\nvalue = [1, 0]"] ;
57 -> 59 ;
60 [label="Fare <= 7.7812\ngini = 0.2706\nsamples = 31\nvalue = [5, 26]"] ;
56 -> 60 ;
61 [label="Age_Med_Imp <= 21.5\ngini = 0.3299\nsamples = 24\nvalue = [5, 19]"] ;
60 -> 61 ;
62 [label="Fare <= 7.7625\ngini = 0.3878\nsamples = 19\nvalue = [5, 14]"] ;
61 -> 62 ;
63 [label="Fare <= 7.6396\ngini = 0.3457\nsamples = 18\nvalue = [4, 14]"] ;
62 -> 63 ;
64 [label="Fare <= 7.5229\ngini = 0.5\nsamples = 4\nvalue = [2, 2]"] ;
63 -> 64 ;
65 [label="gini = 0.0\nsamples = 2\nvalue = [0, 2]"] ;
64 -> 65 ;
66 [label="gini = 0.0\nsamples = 2\nvalue = [2, 0]"] ;
64 -> 66 ;
67 [label="Age_Med_Imp <= 19.5\ngini = 0.2449\nsamples = 14\nvalue = [2, 12]"] ;
63 -> 67 ;
68 [label="Fare <= 7.7438\ngini = 0.1528\nsamples = 12\nvalue = [1, 11]"] ;
67 -> 68 ;
69 [label="gini = 0.0\nsamples = 3\nvalue = [0, 3]"] ;
68 -> 69 ;
70 [label="Age_Med_Imp <= 17.0\ngini = 0.1975\nsamples = 9\nvalue = [1, 8]"] ;
68 -> 70 ;
71 [label="gini = 0.0\nsamples = 1\nvalue = [0, 1]"] ;
70 -> 71 ;
72 [label="gini = 0.2188\nsamples = 8\nvalue = [1, 7]"] ;
70 -> 72 ;
73 [label="Fare <= 7.7\ngini = 0.5\nsamples = 2\nvalue = [1, 1]"] ;
67 -> 73 ;
74 [label="gini = 0.0\nsamples = 1\nvalue = [0, 1]"] ;
73 -> 74 ;
75 [label="gini = 0.0\nsamples = 1\nvalue = [1, 0]"] ;
73 -> 75 ;
76 [label="gini = 0.0\nsamples = 1\nvalue = [1, 0]"] ;
62 -> 76 ;
77 [label="gini = 0.0\nsamples = 5\nvalue = [0, 5]"] ;
61 -> 77 ;
78 [label="gini = 0.0\nsamples = 7\nvalue = [0, 7]"] ;
60 -> 78 ;
79 [label="Title <= 4.0\ngini = 0.5\nsamples = 6\nvalue = [3, 3]"] ;
55 -> 79 ;
80 [label="Fare <= 7.8146\ngini = 0.375\nsamples = 4\nvalue = [3, 1]"] ;
79 -> 80 ;
81 [label="gini = 0.0\nsamples = 2\nvalue = [2, 0]"] ;
80 -> 81 ;
82 [label="Age_Med_Imp <= 28.5\ngini = 0.5\nsamples = 2\nvalue = [1, 1]"] ;
80 -> 82 ;
83 [label="gini = 0.0\nsamples = 1\nvalue = [0, 1]"] ;
82 -> 83 ;
84 [label="gini = 0.0\nsamples = 1\nvalue = [1, 0]"] ;
82 -> 84 ;
85 [label="gini = 0.0\nsamples = 2\nvalue = [0, 2]"] ;
79 -> 85 ;
86 [label="gini = 0.0\nsamples = 1\nvalue = [1, 0]"] ;
54 -> 86 ;
87 [label="Fare <= 15.3729\ngini = 0.4994\nsamples = 58\nvalue = [30, 28]"] ;
51 -> 87 ;
88 [label="Title <= 4.0\ngini = 0.4567\nsamples = 34\nvalue = [22, 12]"] ;
87 -> 88 ;
89 [label="Age_Med_Imp <= 25.5\ngini = 0.3856\nsamples = 23\nvalue = [17, 6]"] ;
88 -> 89 ;
90 [label="Age_Med_Imp <= 16.0\ngini = 0.2778\nsamples = 18\nvalue = [15, 3]"] ;
89 -> 90 ;
91 [label="Fare <= 12.8479\ngini = 0.5\nsamples = 4\nvalue = [2, 2]"] ;
90 -> 91 ;
92 [label="gini = 0.0\nsamples = 2\nvalue = [0, 2]"] ;
91 -> 92 ;
93 [label="gini = 0.0\nsamples = 2\nvalue = [2, 0]"] ;
91 -> 93 ;
94 [label="Fare <= 9.8396\ngini = 0.1327\nsamples = 14\nvalue = [13, 1]"] ;
90 -> 94 ;
95 [label="gini = 0.0\nsamples = 9\nvalue = [9, 0]"] ;
94 -> 95 ;
96 [label="Fare <= 10.1792\ngini = 0.32\nsamples = 5\nvalue = [4, 1]"] ;
94 -> 96 ;
97 [label="gini = 0.0\nsamples = 1\nvalue = [0, 1]"] ;
96 -> 97 ;
98 [label="gini = 0.0\nsamples = 4\nvalue = [4, 0]"] ;
96 -> 98 ;
99 [label="Age_Med_Imp <= 27.5\ngini = 0.48\nsamples = 5\nvalue = [2, 3]"] ;
89 -> 99 ;
100 [label="gini = 0.0\nsamples = 2\nvalue = [0, 2]"] ;
99 -> 100 ;
101 [label="Fare <= 10.5688\ngini = 0.4444\nsamples = 3\nvalue = [2, 1]"] ;
99 -> 101 ;
102 [label="gini = 0.0\nsamples = 2\nvalue = [2, 0]"] ;
101 -> 102 ;
103 [label="gini = 0.0\nsamples = 1\nvalue = [0, 1]"] ;
101 -> 103 ;
104 [label="Age_Med_Imp <= 27.5\ngini = 0.4959\nsamples = 11\nvalue = [5, 6]"] ;
88 -> 104 ;
105 [label="gini = 0.0\nsamples = 4\nvalue = [0, 4]"] ;
104 -> 105 ;
106 [label="Family_Size <= 1.5\ngini = 0.4082\nsamples = 7\nvalue = [5, 2]"] ;
104 -> 106 ;
107 [label="Fare <= 8.3666\ngini = 0.5\nsamples = 2\nvalue = [1, 1]"] ;
106 -> 107 ;
108 [label="gini = 0.0\nsamples = 1\nvalue = [1, 0]"] ;
107 -> 108 ;
109 [label="gini = 0.0\nsamples = 1\nvalue = [0, 1]"] ;
107 -> 109 ;
110 [label="Fare <= 14.852\ngini = 0.32\nsamples = 5\nvalue = [4, 1]"] ;
106 -> 110 ;
111 [label="gini = 0.0\nsamples = 3\nvalue = [3, 0]"] ;
110 -> 111 ;
112 [label="Age_Med_Imp <= 30.0\ngini = 0.5\nsamples = 2\nvalue = [1, 1]"] ;
110 -> 112 ;
113 [label="gini = 0.0\nsamples = 1\nvalue = [0, 1]"] ;
112 -> 113 ;
114 [label="gini = 0.0\nsamples = 1\nvalue = [1, 0]"] ;
112 -> 114 ;
115 [label="Fare <= 23.35\ngini = 0.4444\nsamples = 24\nvalue = [8, 16]"] ;
87 -> 115 ;
116 [label="Fare <= 18.6292\ngini = 0.375\nsamples = 20\nvalue = [5, 15]"] ;
115 -> 116 ;
117 [label="Fare <= 17.6\ngini = 0.4592\nsamples = 14\nvalue = [5, 9]"] ;
116 -> 117 ;
118 [label="Age_Med_Imp <= 25.0\ngini = 0.2975\nsamples = 11\nvalue = [2, 9]"] ;
117 -> 118 ;
119 [label="gini = 0.0\nsamples = 4\nvalue = [0, 4]"] ;
118 -> 119 ;
120 [label="Age_Med_Imp <= 28.5\ngini = 0.4082\nsamples = 7\nvalue = [2, 5]"] ;
118 -> 120 ;
121 [label="gini = 0.0\nsamples = 1\nvalue = [1, 0]"] ;
120 -> 121 ;
122 [label="Fare <= 15.675\ngini = 0.2778\nsamples = 6\nvalue = [1, 5]"] ;
120 -> 122 ;
123 [label="Age_Med_Imp <= 31.5\ngini = 0.5\nsamples = 2\nvalue = [1, 1]"] ;
122 -> 123 ;
124 [label="gini = 0.0\nsamples = 1\nvalue = [0, 1]"] ;
123 -> 124 ;
125 [label="gini = 0.0\nsamples = 1\nvalue = [1, 0]"] ;
123 -> 125 ;
126 [label="gini = 0.0\nsamples = 4\nvalue = [0, 4]"] ;
122 -> 126 ;
127 [label="gini = 0.0\nsamples = 3\nvalue = [3, 0]"] ;
117 -> 127 ;
128 [label="gini = 0.0\nsamples = 6\nvalue = [0, 6]"] ;
116 -> 128 ;
129 [label="Family_Size <= 2.5\ngini = 0.375\nsamples = 4\nvalue = [3, 1]"] ;
115 -> 129 ;
130 [label="gini = 0.0\nsamples = 1\nvalue = [0, 1]"] ;
129 -> 130 ;
131 [label="gini = 0.0\nsamples = 3\nvalue = [3, 0]"] ;
129 -> 131 ;
132 [label="Age_Med_Imp <= 55.0\ngini = 0.2449\nsamples = 7\nvalue = [6, 1]"] ;
46 -> 132 ;
133 [label="gini = 0.0\nsamples = 6\nvalue = [6, 0]"] ;
132 -> 133 ;
134 [label="gini = 0.0\nsamples = 1\nvalue = [0, 1]"] ;
132 -> 134 ;
135 [label="Fare <= 14.5\ngini = 0.1975\nsamples = 27\nvalue = [24, 3]"] ;
45 -> 135 ;
136 [label="gini = 0.0\nsamples = 1\nvalue = [0, 1]"] ;
135 -> 136 ;
137 [label="Fare <= 31.3312\ngini = 0.142\nsamples = 26\nvalue = [24, 2]"] ;
135 -> 137 ;
138 [label="gini = 0.0\nsamples = 15\nvalue = [15, 0]"] ;
137 -> 138 ;
139 [label="Fare <= 32.8812\ngini = 0.2975\nsamples = 11\nvalue = [9, 2]"] ;
137 -> 139 ;
140 [label="gini = 0.0\nsamples = 2\nvalue = [0, 2]"] ;
139 -> 140 ;
141 [label="gini = 0.0\nsamples = 9\nvalue = [9, 0]"] ;
139 -> 141 ;
142 [label="Deck <= 6.0\ngini = 0.3064\nsamples = 577\nvalue = [468, 109]"] ;
0 -> 142 [labeldistance=2.5, labelangle=-45, headlabel="False"] ;
143 [label="Age_Med_Imp <= 17.5\ngini = 0.4886\nsamples = 106\nvalue = [61, 45]"] ;
142 -> 143 ;
144 [label="gini = 0.0\nsamples = 8\nvalue = [0, 8]"] ;
143 -> 144 ;
145 [label="Fare <= 7.9\ngini = 0.47\nsamples = 98\nvalue = [61, 37]"] ;
143 -> 145 ;
146 [label="gini = 0.0\nsamples = 8\nvalue = [8, 0]"] ;
145 -> 146 ;
147 [label="Age_Med_Imp <= 43.0\ngini = 0.4842\nsamples = 90\nvalue = [53, 37]"] ;
145 -> 147 ;
148 [label="Deck <= 3.5\ngini = 0.4993\nsamples = 52\nvalue = [25, 27]"] ;
147 -> 148 ;
149 [label="Age_Med_Imp <= 22.0\ngini = 0.4959\nsamples = 44\nvalue = [24, 20]"] ;
148 -> 149 ;
150 [label="gini = 0.0\nsamples = 4\nvalue = [4, 0]"] ;
149 -> 150 ;
151 [label="Deck <= 2.5\ngini = 0.5\nsamples = 40\nvalue = [20, 20]"] ;
149 -> 151 ;
152 [label="Fare <= 37.8125\ngini = 0.4922\nsamples = 32\nvalue = [18, 14]"] ;
151 -> 152 ;
153 [label="Fare <= 29.85\ngini = 0.4734\nsamples = 13\nvalue = [5, 8]"] ;
152 -> 153 ;
154 [label="Age_Med_Imp <= 29.0\ngini = 0.4444\nsamples = 6\nvalue = [4, 2]"] ;
153 -> 154 ;
155 [label="gini = 0.0\nsamples = 1\nvalue = [0, 1]"] ;
154 -> 155 ;
156 [label="Fare <= 28.725\ngini = 0.32\nsamples = 5\nvalue = [4, 1]"] ;
154 -> 156 ;
157 [label="gini = 0.0\nsamples = 3\nvalue = [3, 0]"] ;
156 -> 157 ;
158 [label="Family_Size <= 1.5\ngini = 0.5\nsamples = 2\nvalue = [1, 1]"] ;
156 -> 158 ;
159 [label="gini = 0.0\nsamples = 1\nvalue = [0, 1]"] ;
158 -> 159 ;
160 [label="gini = 0.0\nsamples = 1\nvalue = [1, 0]"] ;
158 -> 160 ;
161 [label="Age_Med_Imp <= 40.75\ngini = 0.2449\nsamples = 7\nvalue = [1, 6]"] ;
153 -> 161 ;
162 [label="gini = 0.0\nsamples = 4\nvalue = [0, 4]"] ;
161 -> 162 ;
163 [label="Fare <= 32.75\ngini = 0.4444\nsamples = 3\nvalue = [1, 2]"] ;
161 -> 163 ;
164 [label="gini = 0.0\nsamples = 1\nvalue = [0, 1]"] ;
163 -> 164 ;
165 [label="Fare <= 35.25\ngini = 0.5\nsamples = 2\nvalue = [1, 1]"] ;
163 -> 165 ;
166 [label="gini = 0.0\nsamples = 1\nvalue = [1, 0]"] ;
165 -> 166 ;
167 [label="gini = 0.0\nsamples = 1\nvalue = [0, 1]"] ;
165 -> 167 ;
168 [label="Fare <= 379.925\ngini = 0.4321\nsamples = 19\nvalue = [13, 6]"] ;
152 -> 168 ;
169 [label="Family_Size <= 3.5\ngini = 0.3599\nsamples = 17\nvalue = [13, 4]"] ;
168 -> 169 ;
170 [label="Family_Size <= 1.5\ngini = 0.3047\nsamples = 16\nvalue = [13, 3]"] ;
169 -> 170 ;
171 [label="gini = 0.0\nsamples = 6\nvalue = [6, 0]"] ;
170 -> 171 ;
172 [label="Fare <= 122.2708\ngini = 0.42\nsamples = 10\nvalue = [7, 3]"] ;
170 -> 172 ;
173 [label="Fare <= 84.425\ngini = 0.4898\nsamples = 7\nvalue = [4, 3]"] ;
172 -> 173 ;
174 [label="Deck <= 1.5\ngini = 0.32\nsamples = 5\nvalue = [4, 1]"] ;
173 -> 174 ;
175 [label="Fare <= 54.5\ngini = 0.5\nsamples = 2\nvalue = [1, 1]"] ;
174 -> 175 ;
176 [label="gini = 0.0\nsamples = 1\nvalue = [1, 0]"] ;
175 -> 176 ;
177 [label="gini = 0.0\nsamples = 1\nvalue = [0, 1]"] ;
175 -> 177 ;
178 [label="gini = 0.0\nsamples = 3\nvalue = [3, 0]"] ;
174 -> 178 ;
179 [label="gini = 0.0\nsamples = 2\nvalue = [0, 2]"] ;
173 -> 179 ;
180 [label="gini = 0.0\nsamples = 3\nvalue = [3, 0]"] ;
172 -> 180 ;
181 [label="gini = 0.0\nsamples = 1\nvalue = [0, 1]"] ;
169 -> 181 ;
182 [label="gini = 0.0\nsamples = 2\nvalue = [0, 2]"] ;
168 -> 182 ;
183 [label="Fare <= 12.9375\ngini = 0.375\nsamples = 8\nvalue = [2, 6]"] ;
151 -> 183 ;
184 [label="gini = 0.0\nsamples = 1\nvalue = [1, 0]"] ;
183 -> 184 ;
185 [label="Age_Med_Imp <= 31.5\ngini = 0.2449\nsamples = 7\nvalue = [1, 6]"] ;
183 -> 185 ;
186 [label="Age_Med_Imp <= 28.0\ngini = 0.4444\nsamples = 3\nvalue = [1, 2]"] ;
185 -> 186 ;
187 [label="gini = 0.0\nsamples = 2\nvalue = [0, 2]"] ;
186 -> 187 ;
188 [label="gini = 0.0\nsamples = 1\nvalue = [1, 0]"] ;
186 -> 188 ;
189 [label="gini = 0.0\nsamples = 4\nvalue = [0, 4]"] ;
185 -> 189 ;
190 [label="Deck <= 4.5\ngini = 0.2188\nsamples = 8\nvalue = [1, 7]"] ;
148 -> 190 ;
191 [label="gini = 0.0\nsamples = 7\nvalue = [0, 7]"] ;
190 -> 191 ;
192 [label="gini = 0.0\nsamples = 1\nvalue = [1, 0]"] ;
190 -> 192 ;
193 [label="Age_Med_Imp <= 47.5\ngini = 0.3878\nsamples = 38\nvalue = [28, 10]"] ;
147 -> 193 ;
194 [label="gini = 0.0\nsamples = 10\nvalue = [10, 0]"] ;
193 -> 194 ;
195 [label="Age_Med_Imp <= 49.5\ngini = 0.4592\nsamples = 28\nvalue = [18, 10]"] ;
193 -> 195 ;
196 [label="Family_Size <= 2.5\ngini = 0.2778\nsamples = 6\nvalue = [1, 5]"] ;
195 -> 196 ;
197 [label="gini = 0.0\nsamples = 5\nvalue = [0, 5]"] ;
196 -> 197 ;
198 [label="gini = 0.0\nsamples = 1\nvalue = [1, 0]"] ;
196 -> 198 ;
199 [label="Title <= 5.0\ngini = 0.3512\nsamples = 22\nvalue = [17, 5]"] ;
195 -> 199 ;
200 [label="Age_Med_Imp <= 75.5\ngini = 0.2659\nsamples = 19\nvalue = [16, 3]"] ;
199 -> 200 ;
201 [label="Age_Med_Imp <= 51.5\ngini = 0.1975\nsamples = 18\nvalue = [16, 2]"] ;
200 -> 201 ;
202 [label="Fare <= 41.225\ngini = 0.4444\nsamples = 3\nvalue = [2, 1]"] ;
201 -> 202 ;
203 [label="gini = 0.0\nsamples = 1\nvalue = [0, 1]"] ;
202 -> 203 ;
204 [label="gini = 0.0\nsamples = 2\nvalue = [2, 0]"] ;
202 -> 204 ;
205 [label="Fare <= 78.2437\ngini = 0.1244\nsamples = 15\nvalue = [14, 1]"] ;
201 -> 205 ;
206 [label="gini = 0.0\nsamples = 11\nvalue = [11, 0]"] ;
205 -> 206 ;
207 [label="Fare <= 79.425\ngini = 0.375\nsamples = 4\nvalue = [3, 1]"] ;
205 -> 207 ;
208 [label="gini = 0.0\nsamples = 1\nvalue = [0, 1]"] ;
207 -> 208 ;
209 [label="gini = 0.0\nsamples = 3\nvalue = [3, 0]"] ;
207 -> 209 ;
210 [label="gini = 0.0\nsamples = 1\nvalue = [0, 1]"] ;
200 -> 210 ;
211 [label="Fare <= 53.25\ngini = 0.4444\nsamples = 3\nvalue = [1, 2]"] ;
199 -> 211 ;
212 [label="gini = 0.0\nsamples = 2\nvalue = [0, 2]"] ;
211 -> 212 ;
213 [label="gini = 0.0\nsamples = 1\nvalue = [1, 0]"] ;
211 -> 213 ;
214 [label="Age_Med_Imp <= 9.5\ngini = 0.2348\nsamples = 471\nvalue = [407, 64]"] ;
142 -> 214 ;
215 [label="Family_Size <= 4.5\ngini = 0.5\nsamples = 30\nvalue = [15, 15]"] ;
214 -> 215 ;
216 [label="gini = 0.0\nsamples = 14\nvalue = [0, 14]"] ;
215 -> 216 ;
217 [label="Age_Med_Imp <= 3.5\ngini = 0.1172\nsamples = 16\nvalue = [15, 1]"] ;
215 -> 217 ;
218 [label="Age_Med_Imp <= 2.5\ngini = 0.2778\nsamples = 6\nvalue = [5, 1]"] ;
217 -> 218 ;
219 [label="gini = 0.0\nsamples = 5\nvalue = [5, 0]"] ;
218 -> 219 ;
220 [label="gini = 0.0\nsamples = 1\nvalue = [0, 1]"] ;
218 -> 220 ;
221 [label="gini = 0.0\nsamples = 10\nvalue = [10, 0]"] ;
217 -> 221 ;
222 [label="Fare <= 54.2479\ngini = 0.1975\nsamples = 441\nvalue = [392, 49]"] ;
214 -> 222 ;
223 [label="Pclass <= 0.5\ngini = 0.1834\nsamples = 421\nvalue = [378, 43]"] ;
222 -> 223 ;
224 [label="Age_Med_Imp <= 36.5\ngini = 0.3403\nsamples = 23\nvalue = [18, 5]"] ;
223 -> 224 ;
225 [label="Fare <= 38.8\ngini = 0.375\nsamples = 4\nvalue = [1, 3]"] ;
224 -> 225 ;
226 [label="gini = 0.0\nsamples = 3\nvalue = [0, 3]"] ;
225 -> 226 ;
227 [label="gini = 0.0\nsamples = 1\nvalue = [1, 0]"] ;
225 -> 227 ;
228 [label="Fare <= 27.1354\ngini = 0.1884\nsamples = 19\nvalue = [17, 2]"] ;
224 -> 228 ;
229 [label="Fare <= 26.275\ngini = 0.3457\nsamples = 9\nvalue = [7, 2]"] ;
228 -> 229 ;
230 [label="gini = 0.0\nsamples = 4\nvalue = [4, 0]"] ;
229 -> 230 ;
231 [label="Age_Med_Imp <= 50.5\ngini = 0.48\nsamples = 5\nvalue = [3, 2]"] ;
229 -> 231 ;
232 [label="gini = 0.0\nsamples = 2\nvalue = [0, 2]"] ;
231 -> 232 ;
233 [label="gini = 0.0\nsamples = 3\nvalue = [3, 0]"] ;
231 -> 233 ;
234 [label="gini = 0.0\nsamples = 10\nvalue = [10, 0]"] ;
228 -> 234 ;
235 [label="Age_Med_Imp <= 32.25\ngini = 0.1727\nsamples = 398\nvalue = [360, 38]"] ;
223 -> 235 ;
236 [label="Age_Med_Imp <= 28.75\ngini = 0.1975\nsamples = 297\nvalue = [264, 33]"] ;
235 -> 236 ;
237 [label="Fare <= 2.0062\ngini = 0.1629\nsamples = 246\nvalue = [224, 22]"] ;
236 -> 237 ;
238 [label="Age_Med_Imp <= 22.0\ngini = 0.5\nsamples = 2\nvalue = [1, 1]"] ;
237 -> 238 ;
239 [label="gini = 0.0\nsamples = 1\nvalue = [1, 0]"] ;
238 -> 239 ;
240 [label="gini = 0.0\nsamples = 1\nvalue = [0, 1]"] ;
238 -> 240 ;
241 [label="Fare <= 7.7979\ngini = 0.1573\nsamples = 244\nvalue = [223, 21]"] ;
237 -> 241 ;
242 [label="Age_Med_Imp <= 26.5\ngini = 0.2211\nsamples = 79\nvalue = [69, 10]"] ;
241 -> 242 ;
243 [label="Fare <= 7.7625\ngini = 0.1906\nsamples = 75\nvalue = [67, 8]"] ;
242 -> 243 ;
244 [label="Fare <= 7.2396\ngini = 0.1483\nsamples = 62\nvalue = [57, 5]"] ;
243 -> 244 ;
245 [label="Fare <= 7.1333\ngini = 0.2188\nsamples = 32\nvalue = [28, 4]"] ;
244 -> 245 ;
246 [label="gini = 0.0\nsamples = 13\nvalue = [13, 0]"] ;
245 -> 246 ;
247 [label="Fare <= 7.1833\ngini = 0.3324\nsamples = 19\nvalue = [15, 4]"] ;
245 -> 247 ;
248 [label="gini = 0.0\nsamples = 1\nvalue = [0, 1]"] ;
247 -> 248 ;
249 [label="Age_Med_Imp <= 22.75\ngini = 0.2778\nsamples = 18\nvalue = [15, 3]"] ;
247 -> 249 ;
250 [label="Age_Med_Imp <= 18.5\ngini = 0.48\nsamples = 5\nvalue = [3, 2]"] ;
249 -> 250 ;
251 [label="gini = 0.0\nsamples = 2\nvalue = [2, 0]"] ;
250 -> 251 ;
252 [label="Fare <= 7.2271\ngini = 0.4444\nsamples = 3\nvalue = [1, 2]"] ;
250 -> 252 ;
253 [label="gini = 0.0\nsamples = 1\nvalue = [0, 1]"] ;
252 -> 253 ;
254 [label="Age_Med_Imp <= 21.0\ngini = 0.5\nsamples = 2\nvalue = [1, 1]"] ;
252 -> 254 ;
255 [label="gini = 0.0\nsamples = 1\nvalue = [0, 1]"] ;
254 -> 255 ;
256 [label="gini = 0.0\nsamples = 1\nvalue = [1, 0]"] ;
254 -> 256 ;
257 [label="Fare <= 7.2271\ngini = 0.142\nsamples = 13\nvalue = [12, 1]"] ;
249 -> 257 ;
258 [label="gini = 0.0\nsamples = 6\nvalue = [6, 0]"] ;
257 -> 258 ;
259 [label="Age_Med_Imp <= 24.75\ngini = 0.2449\nsamples = 7\nvalue = [6, 1]"] ;
257 -> 259 ;
260 [label="gini = 0.0\nsamples = 1\nvalue = [1, 0]"] ;
259 -> 260 ;
261 [label="gini = 0.2778\nsamples = 6\nvalue = [5, 1]"] ;
259 -> 261 ;
262 [label="Fare <= 7.7459\ngini = 0.0644\nsamples = 30\nvalue = [29, 1]"] ;
244 -> 262 ;
263 [label="gini = 0.0\nsamples = 19\nvalue = [19, 0]"] ;
262 -> 263 ;
264 [label="Family_Size <= 1.5\ngini = 0.1653\nsamples = 11\nvalue = [10, 1]"] ;
262 -> 264 ;
265 [label="Age_Med_Imp <= 22.0\ngini = 0.18\nsamples = 10\nvalue = [9, 1]"] ;
264 -> 265 ;
266 [label="gini = 0.0\nsamples = 1\nvalue = [1, 0]"] ;
265 -> 266 ;
267 [label="gini = 0.1975\nsamples = 9\nvalue = [8, 1]"] ;
265 -> 267 ;
268 [label="gini = 0.0\nsamples = 1\nvalue = [1, 0]"] ;
264 -> 268 ;
269 [label="Age_Med_Imp <= 20.0\ngini = 0.355\nsamples = 13\nvalue = [10, 3]"] ;
243 -> 269 ;
270 [label="gini = 0.0\nsamples = 4\nvalue = [4, 0]"] ;
269 -> 270 ;
271 [label="Age_Med_Imp <= 21.5\ngini = 0.4444\nsamples = 9\nvalue = [6, 3]"] ;
269 -> 271 ;
272 [label="Fare <= 7.7854\ngini = 0.5\nsamples = 2\nvalue = [1, 1]"] ;
271 -> 272 ;
273 [label="gini = 0.0\nsamples = 1\nvalue = [1, 0]"] ;
272 -> 273 ;
274 [label="gini = 0.0\nsamples = 1\nvalue = [0, 1]"] ;
272 -> 274 ;
275 [label="Fare <= 7.7854\ngini = 0.4082\nsamples = 7\nvalue = [5, 2]"] ;
271 -> 275 ;
276 [label="Family_Size <= 1.5\ngini = 0.48\nsamples = 5\nvalue = [3, 2]"] ;
275 -> 276 ;
277 [label="gini = 0.4444\nsamples = 3\nvalue = [2, 1]"] ;
276 -> 277 ;
278 [label="gini = 0.5\nsamples = 2\nvalue = [1, 1]"] ;
276 -> 278 ;
279 [label="gini = 0.0\nsamples = 2\nvalue = [2, 0]"] ;
275 -> 279 ;
280 [label="Age_Med_Imp <= 27.5\ngini = 0.5\nsamples = 4\nvalue = [2, 2]"] ;
242 -> 280 ;
281 [label="gini = 0.0\nsamples = 2\nvalue = [0, 2]"] ;
280 -> 281 ;
282 [label="gini = 0.0\nsamples = 2\nvalue = [2, 0]"] ;
280 -> 282 ;
283 [label="Age_Med_Imp <= 20.5\ngini = 0.1244\nsamples = 165\nvalue = [154, 11]"] ;
241 -> 283 ;
284 [label="Fare <= 8.1042\ngini = 0.2491\nsamples = 48\nvalue = [41, 7]"] ;
283 -> 284 ;
285 [label="Fare <= 7.9104\ngini = 0.4082\nsamples = 14\nvalue = [10, 4]"] ;
284 -> 285 ;
286 [label="gini = 0.0\nsamples = 6\nvalue = [6, 0]"] ;
285 -> 286 ;
287 [label="Family_Size <= 1.5\ngini = 0.5\nsamples = 8\nvalue = [4, 4]"] ;
285 -> 287 ;
288 [label="Age_Med_Imp <= 19.5\ngini = 0.4898\nsamples = 7\nvalue = [4, 3]"] ;
287 -> 288 ;
289 [label="Age_Med_Imp <= 17.0\ngini = 0.48\nsamples = 5\nvalue = [2, 3]"] ;
288 -> 289 ;
290 [label="gini = 0.5\nsamples = 2\nvalue = [1, 1]"] ;
289 -> 290 ;
291 [label="Age_Med_Imp <= 18.5\ngini = 0.4444\nsamples = 3\nvalue = [1, 2]"] ;
289 -> 291 ;
292 [label="gini = 0.0\nsamples = 1\nvalue = [0, 1]"] ;
291 -> 292 ;
293 [label="gini = 0.5\nsamples = 2\nvalue = [1, 1]"] ;
291 -> 293 ;
294 [label="gini = 0.0\nsamples = 2\nvalue = [2, 0]"] ;
288 -> 294 ;
295 [label="gini = 0.0\nsamples = 1\nvalue = [0, 1]"] ;
287 -> 295 ;
296 [label="Title <= 3.0\ngini = 0.1609\nsamples = 34\nvalue = [31, 3]"] ;
284 -> 296 ;
297 [label="Age_Med_Imp <= 11.5\ngini = 0.4444\nsamples = 3\nvalue = [2, 1]"] ;
296 -> 297 ;
298 [label="gini = 0.0\nsamples = 2\nvalue = [2, 0]"] ;
297 -> 298 ;
299 [label="gini = 0.0\nsamples = 1\nvalue = [0, 1]"] ;
297 -> 299 ;
300 [label="Age_Med_Imp <= 18.5\ngini = 0.1207\nsamples = 31\nvalue = [29, 2]"] ;
296 -> 300 ;
301 [label="gini = 0.0\nsamples = 19\nvalue = [19, 0]"] ;
300 -> 301 ;
302 [label="Fare <= 10.3354\ngini = 0.2778\nsamples = 12\nvalue = [10, 2]"] ;
300 -> 302 ;
303 [label="gini = 0.0\nsamples = 6\nvalue = [6, 0]"] ;
302 -> 303 ;
304 [label="Age_Med_Imp <= 19.5\ngini = 0.4444\nsamples = 6\nvalue = [4, 2]"] ;
302 -> 304 ;
305 [label="Fare <= 11.75\ngini = 0.32\nsamples = 5\nvalue = [4, 1]"] ;
304 -> 305 ;
306 [label="gini = 0.5\nsamples = 2\nvalue = [1, 1]"] ;
305 -> 306 ;
307 [label="gini = 0.0\nsamples = 3\nvalue = [3, 0]"] ;
305 -> 307 ;
308 [label="gini = 0.0\nsamples = 1\nvalue = [0, 1]"] ;
304 -> 308 ;
309 [label="Fare <= 18.2938\ngini = 0.066\nsamples = 117\nvalue = [113, 4]"] ;
283 -> 309 ;
310 [label="Fare <= 8.0813\ngini = 0.0384\nsamples = 102\nvalue = [100, 2]"] ;
309 -> 310 ;
311 [label="gini = 0.0\nsamples = 54\nvalue = [54, 0]"] ;
310 -> 311 ;
312 [label="Fare <= 8.2729\ngini = 0.0799\nsamples = 48\nvalue = [46, 2]"] ;
310 -> 312 ;
313 [label="gini = 0.0\nsamples = 1\nvalue = [0, 1]"] ;
312 -> 313 ;
314 [label="Fare <= 8.6875\ngini = 0.0416\nsamples = 47\nvalue = [46, 1]"] ;
312 -> 314 ;
315 [label="Age_Med_Imp <= 26.5\ngini = 0.2778\nsamples = 6\nvalue = [5, 1]"] ;
314 -> 315 ;
316 [label="gini = 0.0\nsamples = 5\nvalue = [5, 0]"] ;
315 -> 316 ;
317 [label="gini = 0.0\nsamples = 1\nvalue = [0, 1]"] ;
315 -> 317 ;
318 [label="gini = 0.0\nsamples = 41\nvalue = [41, 0]"] ;
314 -> 318 ;
319 [label="Fare <= 19.3771\ngini = 0.2311\nsamples = 15\nvalue = [13, 2]"] ;
309 -> 319 ;
320 [label="gini = 0.0\nsamples = 1\nvalue = [0, 1]"] ;
319 -> 320 ;
321 [label="Fare <= 23.35\ngini = 0.1327\nsamples = 14\nvalue = [13, 1]"] ;
319 -> 321 ;
322 [label="Fare <= 22.8875\ngini = 0.2778\nsamples = 6\nvalue = [5, 1]"] ;
321 -> 322 ;
323 [label="gini = 0.0\nsamples = 5\nvalue = [5, 0]"] ;
322 -> 323 ;
324 [label="gini = 0.0\nsamples = 1\nvalue = [0, 1]"] ;
322 -> 324 ;
325 [label="gini = 0.0\nsamples = 8\nvalue = [8, 0]"] ;
321 -> 325 ;
326 [label="Fare <= 7.5\ngini = 0.3383\nsamples = 51\nvalue = [40, 11]"] ;
236 -> 326 ;
327 [label="gini = 0.0\nsamples = 10\nvalue = [10, 0]"] ;
326 -> 327 ;
328 [label="Fare <= 14.4563\ngini = 0.3926\nsamples = 41\nvalue = [30, 11]"] ;
326 -> 328 ;
329 [label="Fare <= 13.4312\ngini = 0.4297\nsamples = 32\nvalue = [22, 10]"] ;
328 -> 329 ;
330 [label="Fare <= 7.9875\ngini = 0.4121\nsamples = 31\nvalue = [22, 9]"] ;
329 -> 330 ;
331 [label="Fare <= 7.8146\ngini = 0.4592\nsamples = 14\nvalue = [9, 5]"] ;
330 -> 331 ;
332 [label="Age_Med_Imp <= 30.0\ngini = 0.32\nsamples = 5\nvalue = [4, 1]"] ;
331 -> 332 ;
333 [label="Fare <= 7.7625\ngini = 0.5\nsamples = 2\nvalue = [1, 1]"] ;
332 -> 333 ;
334 [label="gini = 0.0\nsamples = 1\nvalue = [0, 1]"] ;
333 -> 334 ;
335 [label="gini = 0.0\nsamples = 1\nvalue = [1, 0]"] ;
333 -> 335 ;
336 [label="gini = 0.0\nsamples = 3\nvalue = [3, 0]"] ;
332 -> 336 ;
337 [label="Fare <= 7.8646\ngini = 0.4938\nsamples = 9\nvalue = [5, 4]"] ;
331 -> 337 ;
338 [label="gini = 0.0\nsamples = 1\nvalue = [0, 1]"] ;
337 -> 338 ;
339 [label="Fare <= 7.8854\ngini = 0.4688\nsamples = 8\nvalue = [5, 3]"] ;
337 -> 339 ;
340 [label="gini = 0.0\nsamples = 1\nvalue = [1, 0]"] ;
339 -> 340 ;
341 [label="Age_Med_Imp <= 29.5\ngini = 0.4898\nsamples = 7\nvalue = [4, 3]"] ;
339 -> 341 ;
342 [label="gini = 0.0\nsamples = 1\nvalue = [0, 1]"] ;
341 -> 342 ;
343 [label="Fare <= 7.9104\ngini = 0.4444\nsamples = 6\nvalue = [4, 2]"] ;
341 -> 343 ;
344 [label="gini = 0.0\nsamples = 2\nvalue = [2, 0]"] ;
343 -> 344 ;
345 [label="Age_Med_Imp <= 31.5\ngini = 0.5\nsamples = 4\nvalue = [2, 2]"] ;
343 -> 345 ;
346 [label="gini = 0.0\nsamples = 1\nvalue = [0, 1]"] ;
345 -> 346 ;
347 [label="gini = 0.4444\nsamples = 3\nvalue = [2, 1]"] ;
345 -> 347 ;
348 [label="Fare <= 9.4916\ngini = 0.3599\nsamples = 17\nvalue = [13, 4]"] ;
330 -> 348 ;
349 [label="gini = 0.0\nsamples = 6\nvalue = [6, 0]"] ;
348 -> 349 ;
350 [label="Pclass <= 1.5\ngini = 0.4628\nsamples = 11\nvalue = [7, 4]"] ;
348 -> 350 ;
351 [label="Fare <= 11.75\ngini = 0.3457\nsamples = 9\nvalue = [7, 2]"] ;
350 -> 351 ;
352 [label="gini = 0.0\nsamples = 4\nvalue = [4, 0]"] ;
351 -> 352 ;
353 [label="Age_Med_Imp <= 30.5\ngini = 0.48\nsamples = 5\nvalue = [3, 2]"] ;
351 -> 353 ;
354 [label="gini = 0.375\nsamples = 4\nvalue = [3, 1]"] ;
353 -> 354 ;
355 [label="gini = 0.0\nsamples = 1\nvalue = [0, 1]"] ;
353 -> 355 ;
356 [label="gini = 0.0\nsamples = 2\nvalue = [0, 2]"] ;
350 -> 356 ;
357 [label="gini = 0.0\nsamples = 1\nvalue = [0, 1]"] ;
329 -> 357 ;
358 [label="Age_Med_Imp <= 31.5\ngini = 0.1975\nsamples = 9\nvalue = [8, 1]"] ;
328 -> 358 ;
359 [label="gini = 0.0\nsamples = 7\nvalue = [7, 0]"] ;
358 -> 359 ;
360 [label="Fare <= 20.925\ngini = 0.5\nsamples = 2\nvalue = [1, 1]"] ;
358 -> 360 ;
361 [label="gini = 0.0\nsamples = 1\nvalue = [1, 0]"] ;
360 -> 361 ;
362 [label="gini = 0.0\nsamples = 1\nvalue = [0, 1]"] ;
360 -> 362 ;
363 [label="Age_Med_Imp <= 38.5\ngini = 0.0941\nsamples = 101\nvalue = [96, 5]"] ;
235 -> 363 ;
364 [label="gini = 0.0\nsamples = 39\nvalue = [39, 0]"] ;
363 -> 364 ;
365 [label="Fare <= 13.25\ngini = 0.1483\nsamples = 62\nvalue = [57, 5]"] ;
363 -> 365 ;
366 [label="Fare <= 7.9104\ngini = 0.2055\nsamples = 43\nvalue = [38, 5]"] ;
365 -> 366 ;
367 [label="gini = 0.0\nsamples = 18\nvalue = [18, 0]"] ;
366 -> 367 ;
368 [label="Fare <= 7.9875\ngini = 0.32\nsamples = 25\nvalue = [20, 5]"] ;
366 -> 368 ;
369 [label="Age_Med_Imp <= 41.5\ngini = 0.4444\nsamples = 3\nvalue = [1, 2]"] ;
368 -> 369 ;
370 [label="gini = 0.5\nsamples = 2\nvalue = [1, 1]"] ;
369 -> 370 ;
371 [label="gini = 0.0\nsamples = 1\nvalue = [0, 1]"] ;
369 -> 371 ;
372 [label="Age_Med_Imp <= 59.5\ngini = 0.2355\nsamples = 22\nvalue = [19, 3]"] ;
368 -> 372 ;
373 [label="Age_Med_Imp <= 46.0\ngini = 0.1884\nsamples = 19\nvalue = [17, 2]"] ;
372 -> 373 ;
374 [label="Age_Med_Imp <= 44.5\ngini = 0.32\nsamples = 10\nvalue = [8, 2]"] ;
373 -> 374 ;
375 [label="Fare <= 10.8313\ngini = 0.1975\nsamples = 9\nvalue = [8, 1]"] ;
374 -> 375 ;
376 [label="gini = 0.0\nsamples = 5\nvalue = [5, 0]"] ;
375 -> 376 ;
377 [label="Age_Med_Imp <= 40.5\ngini = 0.375\nsamples = 4\nvalue = [3, 1]"] ;
375 -> 377 ;
378 [label="gini = 0.0\nsamples = 2\nvalue = [2, 0]"] ;
377 -> 378 ;
379 [label="Title <= 5.5\ngini = 0.5\nsamples = 2\nvalue = [1, 1]"] ;
377 -> 379 ;
380 [label="gini = 0.0\nsamples = 1\nvalue = [0, 1]"] ;
379 -> 380 ;
381 [label="gini = 0.0\nsamples = 1\nvalue = [1, 0]"] ;
379 -> 381 ;
382 [label="gini = 0.0\nsamples = 1\nvalue = [0, 1]"] ;
374 -> 382 ;
383 [label="gini = 0.0\nsamples = 9\nvalue = [9, 0]"] ;
373 -> 383 ;
384 [label="Age_Med_Imp <= 64.0\ngini = 0.4444\nsamples = 3\nvalue = [2, 1]"] ;
372 -> 384 ;
385 [label="gini = 0.0\nsamples = 1\nvalue = [0, 1]"] ;
384 -> 385 ;
386 [label="gini = 0.0\nsamples = 2\nvalue = [2, 0]"] ;
384 -> 386 ;
387 [label="gini = 0.0\nsamples = 19\nvalue = [19, 0]"] ;
365 -> 387 ;
388 [label="Fare <= 58.9375\ngini = 0.42\nsamples = 20\nvalue = [14, 6]"] ;
222 -> 388 ;
389 [label="Age_Med_Imp <= 30.0\ngini = 0.4082\nsamples = 7\nvalue = [2, 5]"] ;
388 -> 389 ;
390 [label="Age_Med_Imp <= 27.0\ngini = 0.48\nsamples = 5\nvalue = [2, 3]"] ;
389 -> 390 ;
391 [label="gini = 0.375\nsamples = 4\nvalue = [1, 3]"] ;
390 -> 391 ;
392 [label="gini = 0.0\nsamples = 1\nvalue = [1, 0]"] ;
390 -> 392 ;
393 [label="gini = 0.0\nsamples = 2\nvalue = [0, 2]"] ;
389 -> 393 ;
394 [label="Title <= 2.0\ngini = 0.142\nsamples = 13\nvalue = [12, 1]"] ;
388 -> 394 ;
395 [label="gini = 0.0\nsamples = 1\nvalue = [0, 1]"] ;
394 -> 395 ;
396 [label="gini = 0.0\nsamples = 12\nvalue = [12, 0]"] ;
394 -> 396 ;
}